#pragma once
#include <cstdarg>
namespace Eloquent {
    namespace ML {
        namespace Port {
            class RandomForestRegressor {
                public:
                    /**
                    * Predict class for features vector
                    */
                    float predict(float *x) {
                        float y_pred = 0;
                        // tree #1
                        if (x[6] <= 28.875) {
                            if (x[5] <= 74.02999877929688) {
                                y_pred += 25.05;
                            }

                            else {
                                y_pred += 25.54;
                            }
                        }

                        else {
                            if (x[0] <= 28.954999923706055) {
                                if (x[4] <= 28.614999771118164) {
                                    if (x[6] <= 29.850000381469727) {
                                        y_pred += 29.69;
                                    }

                                    else {
                                        y_pred += 29.79;
                                    }
                                }

                                else {
                                    if (x[6] <= 30.545000076293945) {
                                        if (x[5] <= 73.21500015258789) {
                                            y_pred += 30.2;
                                        }

                                        else {
                                            y_pred += 30.34;
                                        }
                                    }

                                    else {
                                        y_pred += 30.56;
                                    }
                                }
                            }

                            else {
                                if (x[5] <= 71.66999816894531) {
                                    y_pred += 31.71;
                                }

                                else {
                                    if (x[6] <= 31.5649995803833) {
                                        if (x[5] <= 74.0) {
                                            y_pred += 31.105;
                                        }

                                        else {
                                            y_pred += 31.18;
                                        }
                                    }

                                    else {
                                        y_pred += 31.4;
                                    }
                                }
                            }
                        }

                        // tree #2
                        if (x[4] <= 28.414999961853027) {
                            y_pred += 25.54;
                        }

                        else {
                            if (x[2] <= 0.7549999952316284) {
                                y_pred += 36.25;
                            }

                            else {
                                if (x[6] <= 30.895000457763672) {
                                    if (x[6] <= 30.190000534057617) {
                                        if (x[5] <= 71.48500061035156) {
                                            y_pred += 29.95;
                                        }

                                        else {
                                            y_pred += 29.706000000000007;
                                        }
                                    }

                                    else {
                                        if (x[6] <= 30.520000457763672) {
                                            y_pred += 30.185;
                                        }

                                        else {
                                            y_pred += 30.56;
                                        }
                                    }
                                }

                                else {
                                    if (x[5] <= 73.25) {
                                        if (x[4] <= 28.88499927520752) {
                                            y_pred += 31.36;
                                        }

                                        else {
                                            y_pred += 31.71;
                                        }
                                    }

                                    else {
                                        y_pred += 30.98;
                                    }
                                }
                            }
                        }

                        // tree #3
                        if (x[2] <= 0.7549999952316284) {
                            y_pred += 36.25;
                        }

                        else {
                            if (x[6] <= 28.925000190734863) {
                                y_pred += 27.96;
                            }

                            else {
                                if (x[6] <= 30.824999809265137) {
                                    if (x[6] <= 30.190000534057617) {
                                        if (x[4] <= 28.635000228881836) {
                                            y_pred += 29.71666666666667;
                                        }

                                        else {
                                            y_pred += 29.95;
                                        }
                                    }

                                    else {
                                        if (x[4] <= 28.649999618530273) {
                                            y_pred += 30.53;
                                        }

                                        else {
                                            y_pred += 30.24;
                                        }
                                    }
                                }

                                else {
                                    if (x[5] <= 71.66999816894531) {
                                        y_pred += 31.71;
                                    }

                                    else {
                                        if (x[4] <= 28.75) {
                                            y_pred += 31.28;
                                        }

                                        else {
                                            y_pred += 31.098000000000003;
                                        }
                                    }
                                }
                            }
                        }

                        // tree #4
                        if (x[6] <= 34.19999885559082) {
                            if (x[6] <= 28.975000381469727) {
                                if (x[2] <= 0.7549999952316284) {
                                    y_pred += 25.05;
                                }

                                else {
                                    y_pred += 27.96;
                                }
                            }

                            else {
                                if (x[0] <= 28.954999923706055) {
                                    if (x[6] <= 29.9950008392334) {
                                        y_pred += 29.69;
                                    }

                                    else {
                                        if (x[6] <= 30.545000076293945) {
                                            y_pred += 30.24;
                                        }

                                        else {
                                            y_pred += 30.56;
                                        }
                                    }
                                }

                                else {
                                    if (x[6] <= 31.5649995803833) {
                                        if (x[4] <= 28.75) {
                                            y_pred += 31.28;
                                        }

                                        else {
                                            y_pred += 31.07;
                                        }
                                    }

                                    else {
                                        y_pred += 31.399999999999995;
                                    }
                                }
                            }
                        }

                        else {
                            if (x[4] <= 28.765000343322754) {
                                y_pred += 36.69;
                            }

                            else {
                                y_pred += 36.25;
                            }
                        }

                        // tree #5
                        if (x[6] <= 34.19999885559082) {
                            if (x[2] <= 0.7549999952316284) {
                                y_pred += 25.05;
                            }

                            else {
                                if (x[4] <= 28.764999389648438) {
                                    if (x[6] <= 30.045000076293945) {
                                        if (x[5] <= 72.45000076293945) {
                                            y_pred += 29.79;
                                        }

                                        else {
                                            y_pred += 29.676666666666666;
                                        }
                                    }

                                    else {
                                        if (x[5] <= 71.6150016784668) {
                                            y_pred += 29.95;
                                        }

                                        else {
                                            y_pred += 30.185;
                                        }
                                    }
                                }

                                else {
                                    if (x[5] <= 73.16499710083008) {
                                        if (x[6] <= 31.399999618530273) {
                                            y_pred += 31.71;
                                        }

                                        else {
                                            y_pred += 31.4;
                                        }
                                    }

                                    else {
                                        if (x[5] <= 74.03499984741211) {
                                            y_pred += 30.98;
                                        }

                                        else {
                                            y_pred += 31.18;
                                        }
                                    }
                                }
                            }
                        }

                        else {
                            if (x[6] <= 36.78999900817871) {
                                y_pred += 36.25;
                            }

                            else {
                                y_pred += 36.69;
                            }
                        }

                        // tree #6
                        if (x[6] <= 34.054999351501465) {
                            if (x[1] <= 96.0) {
                                y_pred += 25.54;
                            }

                            else {
                                if (x[6] <= 30.449999809265137) {
                                    if (x[6] <= 30.05500030517578) {
                                        if (x[5] <= 72.45000076293945) {
                                            y_pred += 29.790000000000003;
                                        }

                                        else {
                                            y_pred += 29.683333333333337;
                                        }
                                    }

                                    else {
                                        if (x[5] <= 72.01499938964844) {
                                            y_pred += 30.18;
                                        }

                                        else {
                                            y_pred += 30.2;
                                        }
                                    }
                                }

                                else {
                                    if (x[4] <= 28.714999198913574) {
                                        if (x[6] <= 30.630000114440918) {
                                            y_pred += 30.53;
                                        }

                                        else {
                                            y_pred += 30.56;
                                        }
                                    }

                                    else {
                                        if (x[5] <= 71.66999816894531) {
                                            y_pred += 31.71;
                                        }

                                        else {
                                            y_pred += 31.134999999999998;
                                        }
                                    }
                                }
                            }
                        }

                        else {
                            if (x[4] <= 28.765000343322754) {
                                y_pred += 36.69;
                            }

                            else {
                                y_pred += 36.25;
                            }
                        }

                        // tree #7
                        if (x[6] <= 34.19999885559082) {
                            if (x[6] <= 28.925000190734863) {
                                if (x[6] <= 26.850000381469727) {
                                    y_pred += 25.05;
                                }

                                else {
                                    y_pred += 27.96;
                                }
                            }

                            else {
                                if (x[6] <= 31.050000190734863) {
                                    if (x[4] <= 28.614999771118164) {
                                        if (x[6] <= 29.850000381469727) {
                                            y_pred += 29.68;
                                        }

                                        else {
                                            y_pred += 29.79;
                                        }
                                    }

                                    else {
                                        if (x[4] <= 28.649999618530273) {
                                            y_pred += 30.545;
                                        }

                                        else {
                                            y_pred += 30.259999999999998;
                                        }
                                    }
                                }

                                else {
                                    if (x[5] <= 72.71500015258789) {
                                        y_pred += 31.4;
                                    }

                                    else {
                                        y_pred += 31.28;
                                    }
                                }
                            }
                        }

                        else {
                            if (x[6] <= 36.78999900817871) {
                                y_pred += 36.25;
                            }

                            else {
                                y_pred += 36.69;
                            }
                        }

                        // tree #8
                        if (x[6] <= 34.054999351501465) {
                            if (x[5] <= 74.45000076293945) {
                                if (x[6] <= 30.910000801086426) {
                                    if (x[4] <= 28.52999973297119) {
                                        y_pred += 29.67;
                                    }

                                    else {
                                        if (x[4] <= 28.649999618530273) {
                                            y_pred += 30.56;
                                        }

                                        else {
                                            y_pred += 30.265;
                                        }
                                    }
                                }

                                else {
                                    if (x[6] <= 31.15000057220459) {
                                        y_pred += 30.98;
                                    }

                                    else {
                                        if (x[4] <= 28.75) {
                                            y_pred += 31.28;
                                        }

                                        else {
                                            y_pred += 31.142500000000002;
                                        }
                                    }
                                }
                            }

                            else {
                                if (x[2] <= 0.7549999952316284) {
                                    y_pred += 25.54;
                                }

                                else {
                                    y_pred += 27.96;
                                }
                            }
                        }

                        else {
                            if (x[6] <= 36.78999900817871) {
                                y_pred += 36.25;
                            }

                            else {
                                y_pred += 36.69;
                            }
                        }

                        // tree #9
                        if (x[6] <= 27.665000915527344) {
                            y_pred += 25.05;
                        }

                        else {
                            if (x[2] <= 0.7549999952316284) {
                                y_pred += 36.69;
                            }

                            else {
                                if (x[6] <= 30.71500015258789) {
                                    if (x[4] <= 28.699999809265137) {
                                        if (x[5] <= 71.48500061035156) {
                                            y_pred += 29.95;
                                        }

                                        else {
                                            y_pred += 29.765;
                                        }
                                    }

                                    else {
                                        if (x[5] <= 72.01499938964844) {
                                            y_pred += 30.179999999999996;
                                        }

                                        else {
                                            y_pred += 30.2;
                                        }
                                    }
                                }

                                else {
                                    if (x[6] <= 31.105000495910645) {
                                        y_pred += 31.71;
                                    }

                                    else {
                                        if (x[6] <= 31.5649995803833) {
                                            y_pred += 31.0425;
                                        }

                                        else {
                                            y_pred += 31.4;
                                        }
                                    }
                                }
                            }
                        }

                        // tree #10
                        if (x[6] <= 29.03499984741211) {
                            if (x[1] <= 96.0) {
                                if (x[6] <= 26.75) {
                                    y_pred += 25.05;
                                }

                                else {
                                    y_pred += 25.54;
                                }
                            }

                            else {
                                y_pred += 27.96;
                            }
                        }

                        else {
                            if (x[0] <= 28.454999923706055) {
                                y_pred += 36.25;
                            }

                            else {
                                if (x[4] <= 28.699999809265137) {
                                    if (x[6] <= 30.369999885559082) {
                                        if (x[6] <= 30.045000076293945) {
                                            y_pred += 29.79;
                                        }

                                        else {
                                            y_pred += 29.95;
                                        }
                                    }

                                    else {
                                        if (x[6] <= 30.630000114440918) {
                                            y_pred += 30.53;
                                        }

                                        else {
                                            y_pred += 30.56;
                                        }
                                    }
                                }

                                else {
                                    if (x[4] <= 28.88499927520752) {
                                        if (x[6] <= 31.289999961853027) {
                                            y_pred += 31.05;
                                        }

                                        else {
                                            y_pred += 31.320000000000004;
                                        }
                                    }

                                    else {
                                        y_pred += 31.71;
                                    }
                                }
                            }
                        }

                        return y_pred / 10;
                    }

                protected:
                };
            }
        }
    }